       29.693315      -115.68342     -0.41294909       0
       29.670999      -115.68943     -0.40884495       1
       29.647823      -115.69566     -0.40287066       2
       29.624652      -115.70189     -0.36477327       3
       29.598901      -115.70881     -0.38485861       4
       29.610917      -115.70558     -0.39294100       5
       29.577441      -115.71457     -0.35622168       6
       29.554270      -115.72079     -0.37302065       7
       29.531096      -115.72701     -0.37956810       8
       29.501906      -115.73483     -0.34662390       9
       29.513925      -115.73161     -0.35130310      10
       29.484738      -115.73943     -0.36179733      11
       29.460697      -115.74587     -0.36562109      12
       29.437518      -115.75209     -0.35632610      13
       29.416912      -115.75760     -0.31909609      14
       29.404892      -115.76082     -0.34902620      15
       29.391158      -115.76450     -0.33401203      16
       29.367120      -115.77093     -0.33353806      17
       29.351666      -115.77506     -0.33244467      18
